digraph Tree {
node [shape=box, fontname="helvetica"] ;
edge [fontname="helvetica"] ;
0 [label="Rating <= 4.05\nsquared_error = 0.789\nsamples = 10155\nvalue = 2.961"] ;
1 [label="Rating <= 3.75\nsquared_error = 0.352\nsamples = 7410\nvalue = 2.617"] ;
0 -> 1 [labeldistance=2.5, labelangle=45, headlabel="True"] ;
2 [label="Rating <= 3.55\nsquared_error = 0.202\nsamples = 3545\nvalue = 2.34"] ;
1 -> 2 ;
3 [label="Rating <= 3.25\nsquared_error = 0.152\nsamples = 1324\nvalue = 2.17"] ;
2 -> 3 ;
4 [label="Rating <= 3.05\nsquared_error = 0.128\nsamples = 166\nvalue = 2.003"] ;
3 -> 4 ;
5 [label="Rating <= 2.65\nsquared_error = 0.129\nsamples = 31\nvalue = 1.938"] ;
4 -> 5 ;
6 [label="Rating <= 2.55\nsquared_error = 0.027\nsamples = 2\nvalue = 2.279"] ;
5 -> 6 ;
7 [label="squared_error = 0.0\nsamples = 1\nvalue = 2.115"] ;
6 -> 7 ;
8 [label="squared_error = 0.0\nsamples = 1\nvalue = 2.442"] ;
6 -> 8 ;
9 [label="Rating <= 2.95\nsquared_error = 0.128\nsamples = 29\nvalue = 1.915"] ;
5 -> 9 ;
10 [label="Rating <= 2.75\nsquared_error = 0.062\nsamples = 9\nvalue = 1.821"] ;
9 -> 10 ;
11 [label="squared_error = 0.0\nsamples = 1\nvalue = 1.69"] ;
10 -> 11 ;
12 [label="Rating <= 2.85\nsquared_error = 0.067\nsamples = 8\nvalue = 1.837"] ;
10 -> 12 ;
13 [label="squared_error = 0.122\nsamples = 3\nvalue = 1.811"] ;
12 -> 13 ;
14 [label="squared_error = 0.034\nsamples = 5\nvalue = 1.853"] ;
12 -> 14 ;
15 [label="squared_error = 0.152\nsamples = 20\nvalue = 1.957"] ;
9 -> 15 ;
16 [label="Rating <= 3.15\nsquared_error = 0.127\nsamples = 135\nvalue = 2.017"] ;
4 -> 16 ;
17 [label="squared_error = 0.154\nsamples = 37\nvalue = 1.993"] ;
16 -> 17 ;
18 [label="squared_error = 0.116\nsamples = 98\nvalue = 2.027"] ;
16 -> 18 ;
19 [label="Rating <= 3.45\nsquared_error = 0.151\nsamples = 1158\nvalue = 2.194"] ;
3 -> 19 ;
20 [label="Rating <= 3.35\nsquared_error = 0.147\nsamples = 539\nvalue = 2.152"] ;
19 -> 20 ;
21 [label="squared_error = 0.123\nsamples = 202\nvalue = 2.132"] ;
20 -> 21 ;
22 [label="squared_error = 0.162\nsamples = 337\nvalue = 2.163"] ;
20 -> 22 ;
23 [label="squared_error = 0.151\nsamples = 619\nvalue = 2.232"] ;
19 -> 23 ;
24 [label="Rating <= 3.65\nsquared_error = 0.205\nsamples = 2221\nvalue = 2.441"] ;
2 -> 24 ;
25 [label="squared_error = 0.168\nsamples = 1001\nvalue = 2.361"] ;
24 -> 25 ;
26 [label="squared_error = 0.226\nsamples = 1220\nvalue = 2.507"] ;
24 -> 26 ;
27 [label="Rating <= 3.85\nsquared_error = 0.355\nsamples = 3865\nvalue = 2.871"] ;
1 -> 27 ;
28 [label="squared_error = 0.26\nsamples = 1495\nvalue = 2.691"] ;
27 -> 28 ;
29 [label="Rating <= 3.95\nsquared_error = 0.381\nsamples = 2370\nvalue = 2.984"] ;
27 -> 29 ;
30 [label="squared_error = 0.33\nsamples = 1320\nvalue = 2.891"] ;
29 -> 30 ;
31 [label="squared_error = 0.421\nsamples = 1050\nvalue = 3.101"] ;
29 -> 31 ;
32 [label="Rating <= 4.35\nsquared_error = 0.784\nsamples = 2745\nvalue = 3.892"] ;
0 -> 32 [labeldistance=2.5, labelangle=-45, headlabel="False"] ;
33 [label="Rating <= 4.15\nsquared_error = 0.493\nsamples = 2202\nvalue = 3.651"] ;
32 -> 33 ;
34 [label="squared_error = 0.406\nsamples = 978\nvalue = 3.395"] ;
33 -> 34 ;
35 [label="Rating <= 4.25\nsquared_error = 0.47\nsamples = 1224\nvalue = 3.855"] ;
33 -> 35 ;
36 [label="squared_error = 0.465\nsamples = 755\nvalue = 3.762"] ;
35 -> 36 ;
37 [label="squared_error = 0.441\nsamples = 469\nvalue = 4.005"] ;
35 -> 37 ;
38 [label="Rating <= 4.45\nsquared_error = 0.769\nsamples = 543\nvalue = 4.869"] ;
32 -> 38 ;
39 [label="squared_error = 0.556\nsamples = 263\nvalue = 4.459"] ;
38 -> 39 ;
40 [label="Rating <= 4.55\nsquared_error = 0.664\nsamples = 280\nvalue = 5.254"] ;
38 -> 40 ;
41 [label="squared_error = 0.606\nsamples = 146\nvalue = 4.976"] ;
40 -> 41 ;
42 [label="Rating <= 4.65\nsquared_error = 0.55\nsamples = 134\nvalue = 5.557"] ;
40 -> 42 ;
43 [label="squared_error = 0.482\nsamples = 102\nvalue = 5.456"] ;
42 -> 43 ;
44 [label="Rating <= 4.85\nsquared_error = 0.632\nsamples = 32\nvalue = 5.88"] ;
42 -> 44 ;
45 [label="Rating <= 4.75\nsquared_error = 0.638\nsamples = 31\nvalue = 5.859"] ;
44 -> 45 ;
46 [label="squared_error = 0.664\nsamples = 25\nvalue = 5.865"] ;
45 -> 46 ;
47 [label="squared_error = 0.531\nsamples = 6\nvalue = 5.835"] ;
45 -> 47 ;
48 [label="squared_error = 0.0\nsamples = 1\nvalue = 6.524"] ;
44 -> 48 ;
}